<?xml version="1.0"?>
<opencv_storage>
<cascade>
  <stageType>BOOST</stageType>
  <featureType>HAAR</featureType>
  <height>40</height>
  <width>40</width>
  <stageParams>
    <boostType>GAB</boostType>
    <minHitRate>9.9500000476837158e-01</minHitRate>
    <maxFalseAlarm>5.0000000000000000e-01</maxFalseAlarm>
    <weightTrimRate>9.4999998807907104e-01</weightTrimRate>
    <maxDepth>1</maxDepth>
    <maxWeakCount>100</maxWeakCount></stageParams>
  <featureParams>
    <maxCatCount>0</maxCatCount>
    <featSize>1</featSize>
    <mode>BASIC</mode></featureParams>
  <stageNum>6</stageNum>
  <stages>
    <!-- stage 0 -->
    <_>
      <maxWeakCount>4</maxWeakCount>
      <stageThreshold>-1.4353094100952148e+00</stageThreshold>
      <weakClassifiers>
        <_>
          <internalNodes>
            0 -1 20 4.8726055771112442e-02</internalNodes>
          <leafValues>
            -9.3897640705108643e-01 4.8275861144065857e-01</leafValues></_>
        <_>
          <internalNodes>
            0 -1 12 3.9706349372863770e-02</internalNodes>
          <leafValues>
            -8.0130511522293091e-01 7.4533528089523315e-01</leafValues></_>
        <_>
          <internalNodes>
            0 -1 0 3.6878574639558792e-02</internalNodes>
          <leafValues>
            -5.6918305158615112e-01 8.6939275264739990e-01</leafValues></_>
        <_>
          <internalNodes>
            0 -1 5 -2.9869692400097847e-02</internalNodes>
          <leafValues>
            9.0890562534332275e-01 -5.6442070007324219e-01</leafValues></_></weakClassifiers></_>
    <!-- stage 1 -->
    <_>
      <maxWeakCount>6</maxWeakCount>
      <stageThreshold>-2.2293703556060791e+00</stageThreshold>
      <weakClassifiers>
        <_>
          <internalNodes>
            0 -1 17 9.8491892218589783e-02</internalNodes>
          <leafValues>
            -9.3372321128845215e-01 6.6666668653488159e-01</leafValues></_>
        <_>
          <internalNodes>
            0 -1 23 -6.6036686301231384e-02</internalNodes>
          <leafValues>
            6.7762303352355957e-01 -7.3650598526000977e-01</leafValues></_>
        <_>
          <internalNodes>
            0 -1 24 1.0849598795175552e-02</internalNodes>
          <leafValues>
            -6.3006263971328735e-01 5.5630731582641602e-01</leafValues></_>
        <_>
          <internalNodes>
            0 -1 8 1.4001465402543545e-02</internalNodes>
          <leafValues>
            -5.3657126426696777e-01 5.4898017644882202e-01</leafValues></_>
        <_>
          <internalNodes>
            0 -1 15 4.2342771848780103e-06</internalNodes>
          <leafValues>
            -7.9177588224411011e-01 3.4466820955276489e-01</leafValues></_>
        <_>
          <internalNodes>
            0 -1 2 -7.6318840729072690e-04</internalNodes>
          <leafValues>
            -9.3487328290939331e-01 2.6282447576522827e-01</leafValues></_></weakClassifiers></_>
    <!-- stage 2 -->
    <_>
      <maxWeakCount>6</maxWeakCount>
      <stageThreshold>-1.9010646343231201e+00</stageThreshold>
      <weakClassifiers>
        <_>
          <internalNodes>
            0 -1 21 5.5516853928565979e-02</internalNodes>
          <leafValues>
            -9.2322832345962524e-01 2.0689655840396881e-01</leafValues></_>
        <_>
          <internalNodes>
            0 -1 1 3.3434648066759109e-02</internalNodes>
          <leafValues>
            -7.2627574205398560e-01 3.3618777990341187e-01</leafValues></_>
        <_>
          <internalNodes>
            0 -1 19 -4.7653499990701675e-02</internalNodes>
          <leafValues>
            6.6135466098785400e-01 -4.9324339628219604e-01</leafValues></_>
        <_>
          <internalNodes>
            0 -1 7 1.9482544157654047e-03</internalNodes>
          <leafValues>
            2.6370516419410706e-01 -9.4063019752502441e-01</leafValues></_>
        <_>
          <internalNodes>
            0 -1 13 -2.2300302982330322e-02</internalNodes>
          <leafValues>
            6.7556059360504150e-01 -3.9712435007095337e-01</leafValues></_>
        <_>
          <internalNodes>
            0 -1 27 -2.5224422570317984e-03</internalNodes>
          <leafValues>
            -9.1020375490188599e-01 3.7510204315185547e-01</leafValues></_></weakClassifiers></_>
    <!-- stage 3 -->
    <_>
      <maxWeakCount>5</maxWeakCount>
      <stageThreshold>-1.4834707975387573e+00</stageThreshold>
      <weakClassifiers>
        <_>
          <internalNodes>
            0 -1 16 1.3321909308433533e-01</internalNodes>
          <leafValues>
            -9.1076624393463135e-01 3.0232557654380798e-01</leafValues></_>
        <_>
          <internalNodes>
            0 -1 6 -6.4201056957244873e-02</internalNodes>
          <leafValues>
            5.3514045476913452e-01 -6.7327159643173218e-01</leafValues></_>
        <_>
          <internalNodes>
            0 -1 10 2.8684213757514954e-02</internalNodes>
          <leafValues>
            -4.7564864158630371e-01 7.3081135749816895e-01</leafValues></_>
        <_>
          <internalNodes>
            0 -1 29 7.3474470991641283e-04</internalNodes>
          <leafValues>
            3.2849344611167908e-01 -8.3252900838851929e-01</leafValues></_>
        <_>
          <internalNodes>
            0 -1 11 -1.3966290280222893e-03</internalNodes>
          <leafValues>
            -9.1624301671981812e-01 2.4772226810455322e-01</leafValues></_></weakClassifiers></_>
    <!-- stage 4 -->
    <_>
      <maxWeakCount>4</maxWeakCount>
      <stageThreshold>-1.6363523006439209e+00</stageThreshold>
      <weakClassifiers>
        <_>
          <internalNodes>
            0 -1 18 8.0196067690849304e-02</internalNodes>
          <leafValues>
            -8.9674949645996094e-01 4.2857143282890320e-01</leafValues></_>
        <_>
          <internalNodes>
            0 -1 28 -3.2053224742412567e-02</internalNodes>
          <leafValues>
            5.2190124988555908e-01 -6.9186663627624512e-01</leafValues></_>
        <_>
          <internalNodes>
            0 -1 26 -1.2669300660490990e-02</internalNodes>
          <leafValues>
            6.1212635040283203e-01 -4.4631254673004150e-01</leafValues></_>
        <_>
          <internalNodes>
            0 -1 4 3.2585026929154992e-04</internalNodes>
          <leafValues>
            -6.0453784465789795e-01 3.9857643842697144e-01</leafValues></_></weakClassifiers></_>
    <!-- stage 5 -->
    <_>
      <maxWeakCount>5</maxWeakCount>
      <stageThreshold>-1.4851596355438232e+00</stageThreshold>
      <weakClassifiers>
        <_>
          <internalNodes>
            0 -1 25 4.2672548443078995e-02</internalNodes>
          <leafValues>
            -8.9565217494964600e-01 2.5641025975346565e-02</leafValues></_>
        <_>
          <internalNodes>
            0 -1 22 -2.6912422850728035e-02</internalNodes>
          <leafValues>
            3.8325357437133789e-01 -6.5428757667541504e-01</leafValues></_>
        <_>
          <internalNodes>
            0 -1 3 3.3925801515579224e-02</internalNodes>
          <leafValues>
            -5.0542718172073364e-01 4.1933688521385193e-01</leafValues></_>
        <_>
          <internalNodes>
            0 -1 9 -5.2008044440299273e-04</internalNodes>
          <leafValues>
            -8.5957211256027222e-01 2.6482841372489929e-01</leafValues></_>
        <_>
          <internalNodes>
            0 -1 14 -1.0497609764570370e-04</internalNodes>
          <leafValues>
            3.9246144890785217e-01 -6.1938512325286865e-01</leafValues></_></weakClassifiers></_></stages>
  <features>
    <_>
      <rects>
        <_>
          0 14 10 24 -1.</_>
        <_>
          5 14 5 24 2.</_></rects>
      <tilted>0</tilted></_>
    <_>
      <rects>
        <_>
          0 23 9 13 -1.</_>
        <_>
          3 23 3 13 3.</_></rects>
      <tilted>0</tilted></_>
    <_>
      <rects>
        <_>
          1 21 2 6 -1.</_>
        <_>
          1 23 2 2 3.</_></rects>
      <tilted>0</tilted></_>
    <_>
      <rects>
        <_>
          2 0 20 12 -1.</_>
        <_>
          2 6 20 6 2.</_></rects>
      <tilted>0</tilted></_>
    <_>
      <rects>
        <_>
          2 8 8 6 -1.</_>
        <_>
          2 8 4 3 2.</_>
        <_>
          6 11 4 3 2.</_></rects>
      <tilted>0</tilted></_>
    <_>
      <rects>
        <_>
          2 10 8 25 -1.</_>
        <_>
          6 10 4 25 2.</_></rects>
      <tilted>0</tilted></_>
    <_>
      <rects>
        <_>
          3 30 32 10 -1.</_>
        <_>
          3 35 32 5 2.</_></rects>
      <tilted>0</tilted></_>
    <_>
      <rects>
        <_>
          4 39 33 1 -1.</_>
        <_>
          15 39 11 1 3.</_></rects>
      <tilted>0</tilted></_>
    <_>
      <rects>
        <_>
          5 1 5 20 -1.</_>
        <_>
          5 11 5 10 2.</_></rects>
      <tilted>0</tilted></_>
    <_>
      <rects>
        <_>
          5 14 9 3 -1.</_>
        <_>
          5 15 9 1 3.</_></rects>
      <tilted>0</tilted></_>
    <_>
      <rects>
        <_>
          10 29 16 10 -1.</_>
        <_>
          10 34 16 5 2.</_></rects>
      <tilted>0</tilted></_>
    <_>
      <rects>
        <_>
          10 39 21 1 -1.</_>
        <_>
          17 39 7 1 3.</_></rects>
      <tilted>0</tilted></_>
    <_>
      <rects>
        <_>
          20 0 8 18 -1.</_>
        <_>
          20 9 8 9 2.</_></rects>
      <tilted>0</tilted></_>
    <_>
      <rects>
        <_>
          22 24 18 16 -1.</_>
        <_>
          22 24 9 8 2.</_>
        <_>
          31 32 9 8 2.</_></rects>
      <tilted>0</tilted></_>
    <_>
      <rects>
        <_>
          22 30 12 1 -1.</_>
        <_>
          26 30 4 1 3.</_></rects>
      <tilted>0</tilted></_>
    <_>
      <rects>
        <_>
          26 8 1 2 -1.</_>
        <_>
          26 9 1 1 2.</_></rects>
      <tilted>0</tilted></_>
    <_>
      <rects>
        <_>
          28 5 12 28 -1.</_>
        <_>
          32 5 4 28 3.</_></rects>
      <tilted>0</tilted></_>
    <_>
      <rects>
        <_>
          28 6 12 29 -1.</_>
        <_>
          32 6 4 29 3.</_></rects>
      <tilted>0</tilted></_>
    <_>
      <rects>
        <_>
          28 9 9 25 -1.</_>
        <_>
          31 9 3 25 3.</_></rects>
      <tilted>0</tilted></_>
    <_>
      <rects>
        <_>
          28 9 12 23 -1.</_>
        <_>
          34 9 6 23 2.</_></rects>
      <tilted>0</tilted></_>
    <_>
      <rects>
        <_>
          28 14 12 15 -1.</_>
        <_>
          32 14 4 15 3.</_></rects>
      <tilted>0</tilted></_>
    <_>
      <rects>
        <_>
          28 22 12 12 -1.</_>
        <_>
          32 22 4 12 3.</_></rects>
      <tilted>0</tilted></_>
    <_>
      <rects>
        <_>
          29 7 6 26 -1.</_>
        <_>
          31 7 2 26 3.</_></rects>
      <tilted>0</tilted></_>
    <_>
      <rects>
        <_>
          29 8 10 24 -1.</_>
        <_>
          34 8 5 24 2.</_></rects>
      <tilted>0</tilted></_>
    <_>
      <rects>
        <_>
          30 8 6 28 -1.</_>
        <_>
          33 8 3 28 2.</_></rects>
      <tilted>0</tilted></_>
    <_>
      <rects>
        <_>
          30 10 6 19 -1.</_>
        <_>
          32 10 2 19 3.</_></rects>
      <tilted>0</tilted></_>
    <_>
      <rects>
        <_>
          30 17 6 19 -1.</_>
        <_>
          32 17 2 19 3.</_></rects>
      <tilted>0</tilted></_>
    <_>
      <rects>
        <_>
          31 9 9 9 -1.</_>
        <_>
          31 12 9 3 3.</_></rects>
      <tilted>0</tilted></_>
    <_>
      <rects>
        <_>
          34 7 4 28 -1.</_>
        <_>
          36 7 2 28 2.</_></rects>
      <tilted>0</tilted></_>
    <_>
      <rects>
        <_>
          35 8 1 12 -1.</_>
        <_>
          35 12 1 4 3.</_></rects>
      <tilted>0</tilted></_></features></cascade>
</opencv_storage>
